{"levels":[{"inputs":[0,0,0,0.5221175701575966,0.7413718926409028],"outputs":[1,1,0,0,0,1],"biases":[-0.060221699942393084,-0.49948893257845134,-0.05932097169525277,-0.0947931884131841,0.13313394044585886,-0.33926183885147304],"weights":[[-0.3529860687313213,0.30501014544223104,-0.33416227986091196,-0.1662706972915799,-0.6325158799514031,0.1756326269054675],[-0.11800949516868725,-0.3561705234234801,-0.04345824856069452,-0.008196523967561313,0.23430178488269185,-0.06751586667138414],[-0.0003611723162965097,-0.2522443518114915,-0.4338338485744393,0.3217807626845604,-0.23776883531404933,-0.46959244961378915],[0.26346794687142877,0.09291690565318503,0.06764507272274727,-0.6395993476742569,-0.433105806493938,-0.17787723615371084],[0.46606902082187934,-0.033045892087382865,-0.5707238567563839,-0.7082620056841554,-0.052714834148389636,0.390068766626654]]},{"inputs":[1,1,0,0,0,1],"outputs":[1,0,0,0],"biases":[-0.1027373731339015,-0.12682417723089529,0.42564724946887766,0.7233588894249029],"weights":[[0.12772478524579575,0.2529363697966647,-0.2562769932046412,-0.2447099714203717],[0.21664340378965105,-0.4058592056628066,-0.12517903984608866,0.24063650743198636],[0.03965593931229941,-0.4210147828776884,0.18745904794404988,0.18256713112068707],[-0.07126948199164576,0.12653602505981718,0.09498173330826624,-0.5106937725505958],[-0.15244635985134547,0.09675960453810269,-0.15713477989021365,0.19984116378676253],[0.49535909677373885,-0.028346013386866598,0.5217024830477472,-0.15900678928218076]]}]}